34 128
34 0.177812 -0.087041 0.009891 0.054134 -0.093136 0.024440 -0.158006 -0.034818 0.163800 0.092342 0.217476 0.055192 -0.079913 -0.144953 0.040921 0.112725 0.082129 -0.083345 0.029646 0.082921 -0.077123 0.039793 0.067071 -0.102732 -0.065217 -0.121944 0.040672 0.155227 -0.155627 0.079309 0.202794 0.073219 -0.182517 0.137694 0.128125 -0.014920 -0.248711 0.139932 -0.048413 -0.113286 -0.154792 0.147577 -0.173103 0.206563 0.081201 0.038104 -0.081803 -0.051492 -0.029588 -0.048723 -0.103640 -0.013071 -0.002718 0.200173 0.022997 -0.074515 -0.178360 0.065382 0.119125 0.041540 -0.025273 -0.085046 -0.172845 -0.067733 -0.151577 -0.131685 -0.004546 0.011849 0.148176 0.013149 -0.206055 -0.029813 -0.042049 0.017014 0.075789 -0.013072 0.228996 -0.072711 0.056851 -0.235779 -0.112704 0.195267 0.018866 -0.085713 0.044012 -0.124887 -0.097176 0.019924 0.109736 0.056262 0.148037 0.019703 -0.045896 0.077483 -0.021103 -0.092360 0.052839 -0.035344 -0.058695 0.056314 -0.061944 -0.214487 -0.057363 -0.002668 -0.090940 0.170223 -0.032206 0.234715 -0.023251 0.040284 0.029610 -0.066307 -0.010482 0.215286 0.048775 -0.050381 0.141709 -0.118041 0.139649 0.069390 -0.130554 0.119321 0.068274 -0.127994 -0.038151 -0.038104 -0.158918 0.121719
1 0.178947 -0.089427 0.035589 0.074378 -0.048159 -0.075702 -0.116757 0.023122 0.143493 0.021381 0.256499 -0.006265 -0.082840 -0.157847 -0.013062 -0.040501 0.120130 -0.041356 -0.036515 -0.008185 -0.118973 0.117014 0.111042 -0.181261 -0.038020 -0.123305 -0.030131 0.158567 -0.247449 -0.063268 0.160725 0.021703 -0.183939 0.173078 0.092260 -0.008314 -0.113195 0.194303 0.053040 -0.054674 -0.142603 0.143448 -0.182163 0.128983 0.179620 0.062323 -0.162808 -0.021947 0.050104 -0.134473 -0.094318 -0.021695 -0.010152 0.154927 0.005324 0.024710 -0.152246 0.000001 0.119288 -0.103896 0.007859 -0.138812 -0.068474 0.014873 -0.142090 -0.055639 0.120234 0.071374 0.079490 0.101755 -0.246644 0.070330 -0.179865 -0.118793 0.126230 0.001200 0.101780 -0.103675 -0.000463 -0.274571 0.048900 0.089214 0.036815 0.012687 0.099558 -0.142430 -0.023749 0.016775 0.071815 0.087388 0.131435 -0.082769 0.093472 0.134960 -0.096909 -0.196687 0.039321 -0.017171 -0.059565 0.013375 0.098178 -0.000761 0.091406 -0.082830 0.039351 0.076524 0.073322 0.184390 0.049800 0.018558 0.070111 -0.108829 0.087142 0.111985 0.036594 -0.091173 0.017142 -0.124742 0.095663 -0.037035 -0.061278 0.144036 -0.062431 -0.037603 0.024901 -0.047106 -0.154228 -0.016124
33 0.179470 -0.083326 0.006132 0.056962 -0.094552 0.022419 -0.145689 -0.034800 0.158309 0.087487 0.221059 0.053490 -0.073531 -0.140114 0.050378 0.110381 0.083990 -0.078184 0.029058 0.081386 -0.077508 0.040971 0.069683 -0.099520 -0.062723 -0.119947 0.039738 0.148385 -0.157693 0.078600 0.194407 0.072742 -0.182235 0.141627 0.127896 -0.014117 -0.243109 0.137036 -0.047492 -0.109731 -0.147444 0.144351 -0.169921 0.198718 0.074881 0.047383 -0.080301 -0.043407 -0.020032 -0.043186 -0.093706 -0.004524 -0.003398 0.191479 0.020115 -0.075940 -0.174999 0.067759 0.113351 0.039039 -0.023934 -0.079187 -0.165304 -0.064152 -0.151030 -0.127952 -0.000461 0.013199 0.145339 0.009431 -0.204135 -0.025222 -0.052400 0.013952 0.079513 -0.010974 0.223067 -0.078485 0.058390 -0.242118 -0.120170 0.189087 0.012531 -0.079035 0.042608 -0.119919 -0.101335 0.015723 0.107510 0.054788 0.150741 0.013465 -0.044859 0.075147 -0.013264 -0.092438 0.048646 -0.031523 -0.058745 0.052450 -0.058629 -0.200449 -0.063302 -0.001107 -0.093904 0.161958 -0.035195 0.219686 -0.023426 0.033643 0.027425 -0.056687 -0.006362 0.210870 0.052688 -0.040880 0.132199 -0.116586 0.137734 0.065822 -0.128302 0.111923 0.062205 -0.127337 -0.032318 -0.037039 -0.152102 0.108395
3 0.172033 -0.088116 0.027009 0.059714 -0.069837 -0.017418 -0.142356 -0.007453 0.153998 0.056886 0.226847 0.031408 -0.080545 -0.142687 0.019962 0.048639 0.101653 -0.063123 0.000888 0.040438 -0.091118 0.074165 0.081153 -0.135239 -0.051686 -0.122214 0.015585 0.155948 -0.190186 0.021236 0.173700 0.056520 -0.169524 0.139888 0.110287 -0.016010 -0.184244 0.154057 -0.004125 -0.093296 -0.139265 0.142629 -0.168409 0.162692 0.117754 0.041121 -0.111654 -0.042726 0.001326 -0.075771 -0.098885 -0.014140 -0.006735 0.172564 0.011935 -0.030852 -0.163068 0.042316 0.111129 -0.020098 -0.010952 -0.105163 -0.124649 -0.035460 -0.136336 -0.096385 0.046496 0.028775 0.114713 0.043242 -0.209995 0.015091 -0.086055 -0.039790 0.090454 -0.003926 0.164284 -0.079588 0.037272 -0.235834 -0.041992 0.144935 0.023452 -0.041412 0.065067 -0.125300 -0.058368 0.017188 0.094665 0.061702 0.136258 -0.026238 0.014199 0.093440 -0.051337 -0.127998 0.041847 -0.028653 -0.049360 0.040158 0.007057 -0.122490 0.003100 -0.042159 -0.033517 0.118602 0.006280 0.204117 0.002064 0.033243 0.047084 -0.078316 0.026156 0.160666 0.044929 -0.068333 0.085844 -0.115538 0.112658 0.021131 -0.099647 0.131651 0.012715 -0.085610 -0.009810 -0.045261 -0.144981 0.054217
2 0.176085 -0.091771 0.030652 0.061771 -0.053798 -0.056014 -0.130604 0.016056 0.139254 0.022555 0.239558 -0.002738 -0.084411 -0.149877 -0.010397 -0.017552 0.119406 -0.049637 -0.027951 0.012351 -0.107592 0.107775 0.096121 -0.167864 -0.040976 -0.123869 -0.012391 0.159061 -0.221707 -0.042872 0.167623 0.029265 -0.193125 0.167023 0.107731 -0.020171 -0.141364 0.193801 0.023048 -0.068038 -0.140411 0.151716 -0.186427 0.146283 0.164396 0.056888 -0.154241 -0.037354 0.031102 -0.120628 -0.104768 -0.017725 -0.016279 0.169102 0.000538 -0.005425 -0.163676 0.015686 0.121984 -0.083928 0.000211 -0.135251 -0.088279 -0.005923 -0.132890 -0.069431 0.095286 0.052529 0.095656 0.086750 -0.237399 0.053730 -0.143197 -0.099897 0.114509 -0.003462 0.123324 -0.092823 0.016874 -0.259274 0.029786 0.113128 0.025769 -0.001349 0.088797 -0.142655 -0.033386 0.015407 0.092511 0.077017 0.133691 -0.062780 0.070313 0.117789 -0.086360 -0.185140 0.042345 -0.021404 -0.060265 0.025493 0.067667 -0.055116 0.068014 -0.076103 0.013706 0.088970 0.052046 0.199793 0.030514 0.025881 0.066392 -0.097230 0.062842 0.129768 0.041284 -0.086933 0.038097 -0.130648 0.096969 -0.021945 -0.078140 0.152163 -0.039010 -0.050098 0.007159 -0.050230 -0.155988 0.009728
32 0.182734 -0.092829 0.022128 0.063316 -0.087368 0.001510 -0.155470 -0.025065 0.164949 0.073742 0.234005 0.044827 -0.087548 -0.145077 0.028910 0.080463 0.100250 -0.078956 0.013729 0.060154 -0.091153 0.061986 0.075241 -0.127155 -0.055535 -0.128513 0.024894 0.159401 -0.191019 0.046182 0.193910 0.067981 -0.187568 0.153804 0.125626 -0.015528 -0.221404 0.167731 -0.024838 -0.111459 -0.158800 0.164822 -0.188715 0.195096 0.109251 0.049919 -0.110769 -0.048693 -0.006731 -0.069219 -0.109694 -0.011853 -0.008868 0.198783 0.012670 -0.047897 -0.180897 0.057885 0.129332 0.002088 -0.015605 -0.106346 -0.148155 -0.045690 -0.155273 -0.119998 0.028512 0.025250 0.141670 0.041069 -0.227474 -0.000729 -0.076456 -0.014525 0.097459 -0.006713 0.195432 -0.085099 0.050529 -0.250527 -0.080346 0.175108 0.017385 -0.064227 0.056241 -0.139378 -0.081078 0.015288 0.101020 0.067009 0.147222 -0.011637 -0.008990 0.098476 -0.044003 -0.129415 0.053144 -0.031541 -0.052614 0.045558 -0.015747 -0.163477 -0.019232 -0.027529 -0.057068 0.152509 -0.010118 0.232734 -0.003490 0.032528 0.048752 -0.081577 0.019595 0.196515 0.053611 -0.065697 0.116770 -0.125560 0.132337 0.041777 -0.114497 0.143062 0.038356 -0.105941 -0.012415 -0.046661 -0.168179 0.080761
4 0.178723 -0.092910 0.031725 0.063696 -0.061921 -0.038996 -0.134414 -0.000576 0.149592 0.043144 0.239944 0.016045 -0.082388 -0.147609 0.002393 0.017153 0.107500 -0.055876 -0.007091 0.029200 -0.099955 0.085633 0.088596 -0.148220 -0.047954 -0.122596 0.001515 0.159993 -0.203283 -0.008470 0.175600 0.046180 -0.186709 0.159800 0.110301 -0.016968 -0.165114 0.172719 0.007811 -0.080359 -0.146118 0.148684 -0.176526 0.155845 0.142209 0.047855 -0.136180 -0.036220 0.013669 -0.094570 -0.095791 -0.014178 -0.012855 0.168167 0.005590 -0.021407 -0.162481 0.025830 0.117743 -0.050015 0.000146 -0.120652 -0.110619 -0.021453 -0.137108 -0.086142 0.073501 0.044841 0.104246 0.069748 -0.232283 0.035822 -0.116211 -0.070917 0.107758 -0.007631 0.149429 -0.093421 0.028831 -0.256176 -0.008164 0.126461 0.020860 -0.027442 0.081561 -0.136758 -0.049730 0.015242 0.093897 0.070328 0.135524 -0.041552 0.041406 0.110271 -0.067524 -0.158188 0.045588 -0.027741 -0.058193 0.029572 0.035537 -0.082502 0.035910 -0.056160 -0.005495 0.111110 0.033530 0.203503 0.018200 0.025548 0.059725 -0.088503 0.046757 0.156084 0.041385 -0.078294 0.063838 -0.120570 0.112711 -0.001909 -0.084908 0.140859 -0.008608 -0.071845 0.000549 -0.046989 -0.150307 0.032368
24 0.173983 -0.080313 0.016258 0.052798 -0.086617 0.026187 -0.154485 -0.035860 0.150750 0.082702 0.201990 0.058134 -0.085002 -0.130187 0.038351 0.107669 0.075257 -0.080016 0.030898 0.073203 -0.069484 0.038601 0.063046 -0.095726 -0.060611 -0.124440 0.035145 0.140076 -0.149336 0.066763 0.188370 0.076729 -0.169717 0.126078 0.126249 -0.012816 -0.234539 0.134756 -0.041457 -0.112848 -0.140099 0.151075 -0.170610 0.194779 0.076920 0.039413 -0.084101 -0.050522 -0.020239 -0.038073 -0.101777 -0.005604 -0.009475 0.178416 0.020899 -0.067965 -0.167481 0.062799 0.116464 0.028939 -0.018003 -0.080934 -0.157842 -0.065161 -0.142524 -0.126679 0.004458 0.009435 0.147122 0.016733 -0.204255 -0.023480 -0.036751 0.016958 0.081267 -0.003644 0.203208 -0.075810 0.063491 -0.221017 -0.110222 0.186316 0.008088 -0.082316 0.046663 -0.121752 -0.084727 0.010129 0.104634 0.053999 0.138611 0.011219 -0.038574 0.077331 -0.016206 -0.093175 0.050990 -0.034463 -0.052096 0.045446 -0.049941 -0.199216 -0.052360 -0.011397 -0.082289 0.160322 -0.033295 0.217777 -0.018086 0.032333 0.032245 -0.061162 -0.009678 0.202059 0.047676 -0.046390 0.129511 -0.104812 0.129005 0.059404 -0.119938 0.126957 0.064121 -0.119028 -0.030400 -0.039485 -0.145970 0.109791
14 0.176353 -0.086870 0.023296 0.062300 -0.071173 -0.027266 -0.142701 -0.006556 0.152271 0.048047 0.233231 0.025440 -0.084252 -0.138788 0.010174 0.032105 0.105831 -0.064770 -0.006609 0.039235 -0.096796 0.078125 0.086427 -0.141582 -0.047481 -0.126639 0.009640 0.154877 -0.190181 0.003508 0.179468 0.050841 -0.181018 0.144672 0.106183 -0.016775 -0.169517 0.163482 0.000499 -0.088319 -0.139271 0.143163 -0.172750 0.158224 0.128808 0.047665 -0.122980 -0.037413 0.007682 -0.088336 -0.099274 -0.019588 -0.014162 0.174610 0.004254 -0.031775 -0.157594 0.033342 0.118860 -0.034911 -0.009290 -0.110865 -0.112900 -0.029053 -0.131793 -0.089788 0.058582 0.041429 0.111079 0.057388 -0.216959 0.025338 -0.098160 -0.053030 0.100906 -0.009383 0.153979 -0.086543 0.030029 -0.245958 -0.021781 0.140225 0.021097 -0.034755 0.071922 -0.135681 -0.058516 0.013036 0.089903 0.071204 0.133431 -0.026100 0.023979 0.097795 -0.056195 -0.146484 0.043516 -0.028843 -0.057382 0.034359 0.015601 -0.107186 0.023466 -0.044009 -0.026277 0.116410 0.019116 0.200495 0.014835 0.026187 0.053498 -0.083775 0.032340 0.161798 0.039410 -0.071267 0.072598 -0.118583 0.114215 0.011371 -0.095579 0.132098 0.001563 -0.077104 -0.002760 -0.042289 -0.148426 0.052025
7 0.181455 -0.087998 0.054460 0.080855 -0.049119 -0.110568 -0.100780 0.030556 0.139970 0.010187 0.269518 -0.013870 -0.085141 -0.156969 -0.012000 -0.065061 0.125205 -0.027137 -0.044784 -0.030691 -0.135416 0.124380 0.125949 -0.203748 -0.036365 -0.130410 -0.065047 0.155109 -0.291899 -0.092023 0.155229 0.014550 -0.168642 0.180880 0.070509 0.015134 -0.085620 0.214918 0.085100 -0.029343 -0.133446 0.148743 -0.174352 0.105565 0.191988 0.065125 -0.182872 0.002421 0.075577 -0.149329 -0.083414 -0.019599 -0.016272 0.137039 -0.004575 0.058211 -0.129116 -0.009200 0.117903 -0.137366 0.031516 -0.145065 -0.032954 0.045285 -0.163294 -0.030250 0.152145 0.082293 0.065478 0.118532 -0.255112 0.099429 -0.227220 -0.140440 0.136457 0.010627 0.055113 -0.112365 -0.023884 -0.281648 0.071321 0.060620 0.034406 0.042181 0.098913 -0.138618 -0.000685 0.013186 0.044007 0.087604 0.133767 -0.122681 0.131988 0.160849 -0.115360 -0.211176 0.038733 -0.016889 -0.044784 0.000023 0.141813 0.066630 0.124014 -0.096247 0.085380 0.058223 0.096983 0.173570 0.068944 0.010455 0.074189 -0.120309 0.119703 0.082103 0.037032 -0.096330 -0.014759 -0.114673 0.090470 -0.062369 -0.032792 0.145193 -0.088951 -0.001839 0.059986 -0.051560 -0.156414 -0.071088
30 0.185661 -0.092445 0.019329 0.062790 -0.088650 0.002090 -0.146985 -0.027459 0.162436 0.083677 0.237363 0.041929 -0.079462 -0.148238 0.037723 0.089980 0.091566 -0.074458 0.018704 0.064757 -0.090395 0.057384 0.072428 -0.122564 -0.057239 -0.125542 0.022211 0.157619 -0.188930 0.056051 0.196627 0.066831 -0.187688 0.150693 0.121699 -0.005591 -0.233729 0.157039 -0.022750 -0.108418 -0.153676 0.158400 -0.178852 0.193765 0.096195 0.048161 -0.097025 -0.038377 -0.007388 -0.064511 -0.101366 -0.008269 -0.010676 0.196404 0.012489 -0.056825 -0.169997 0.059086 0.116620 0.013588 -0.016700 -0.094941 -0.147346 -0.049617 -0.155554 -0.120524 0.020561 0.020666 0.138456 0.030518 -0.218219 -0.009439 -0.074719 -0.009090 0.085232 -0.004351 0.200461 -0.081621 0.048522 -0.249973 -0.093255 0.176907 0.021436 -0.065867 0.052799 -0.135508 -0.081910 0.013194 0.101237 0.064625 0.151899 -0.005413 -0.017818 0.091957 -0.031462 -0.115592 0.052980 -0.031976 -0.057552 0.046150 -0.029180 -0.164037 -0.034117 -0.016576 -0.061800 0.154004 -0.013105 0.231440 -0.001390 0.032512 0.038701 -0.074425 0.016262 0.197636 0.049421 -0.053718 0.117152 -0.117239 0.136451 0.043833 -0.116375 0.128059 0.043413 -0.107895 -0.015492 -0.044700 -0.168556 0.081354
28 0.181091 -0.087645 0.027283 0.063788 -0.081421 -0.009720 -0.146456 -0.017707 0.151140 0.073734 0.230104 0.043135 -0.088200 -0.136780 0.027826 0.074345 0.090958 -0.071660 0.016612 0.052515 -0.089984 0.057429 0.076908 -0.128267 -0.053654 -0.130146 0.013143 0.152341 -0.188669 0.039154 0.190942 0.064218 -0.173375 0.138329 0.114973 -0.006542 -0.207878 0.152452 -0.017312 -0.096297 -0.142248 0.150923 -0.168775 0.171278 0.097690 0.045402 -0.102263 -0.040476 -0.005685 -0.059315 -0.094457 -0.005781 -0.007193 0.171751 0.011795 -0.045596 -0.158561 0.047030 0.115542 -0.006691 -0.007238 -0.095090 -0.133242 -0.039336 -0.145937 -0.107539 0.033415 0.030377 0.128484 0.034816 -0.212209 0.003883 -0.079463 -0.012930 0.087415 -0.003488 0.175388 -0.081927 0.039146 -0.234810 -0.072541 0.157567 0.014122 -0.054684 0.059965 -0.129609 -0.072354 0.007723 0.091443 0.064116 0.139862 -0.014100 0.000813 0.095218 -0.035774 -0.117956 0.045379 -0.032262 -0.054839 0.035785 -0.015035 -0.144536 -0.017435 -0.025839 -0.045174 0.144058 -0.003203 0.212736 -0.000920 0.026849 0.043321 -0.074395 0.022234 0.180257 0.045917 -0.059238 0.101952 -0.107682 0.124760 0.035833 -0.103744 0.133152 0.033496 -0.097163 -0.012082 -0.043965 -0.154236 0.071802
8 0.178744 -0.091493 0.026828 0.066143 -0.064084 -0.041321 -0.135940 0.003761 0.149311 0.039429 0.239666 0.015513 -0.087400 -0.146312 0.001592 0.010801 0.112644 -0.052592 -0.012439 0.021108 -0.104458 0.094468 0.095955 -0.153205 -0.046043 -0.126408 -0.000758 0.156836 -0.215074 -0.016928 0.171406 0.042572 -0.182781 0.159237 0.102105 -0.017821 -0.158169 0.173295 0.012704 -0.072573 -0.144956 0.146767 -0.175155 0.148124 0.148484 0.051977 -0.139743 -0.039055 0.020520 -0.097782 -0.101800 -0.020755 -0.007802 0.170950 0.007101 -0.012322 -0.162909 0.019872 0.119726 -0.057686 0.001485 -0.124237 -0.104333 -0.016927 -0.140870 -0.075452 0.080120 0.048363 0.104642 0.075829 -0.232489 0.034999 -0.124502 -0.078070 0.111952 -0.001464 0.137022 -0.091813 0.023761 -0.256294 -0.001259 0.124802 0.026751 -0.020527 0.083275 -0.134156 -0.044113 0.010415 0.088807 0.070977 0.132448 -0.048330 0.051929 0.110809 -0.070806 -0.164430 0.041283 -0.024956 -0.056087 0.023819 0.046583 -0.071584 0.042330 -0.059613 -0.005802 0.104774 0.035957 0.200941 0.026194 0.022758 0.055085 -0.094102 0.050962 0.146464 0.043735 -0.081455 0.059458 -0.118358 0.105758 -0.005680 -0.087977 0.142859 -0.020668 -0.066935 0.001612 -0.043080 -0.150993 0.030364
6 0.198770 -0.097100 0.046783 0.080957 -0.055528 -0.097358 -0.119552 0.018473 0.153265 0.025304 0.284120 -0.005355 -0.094637 -0.163106 -0.006703 -0.046808 0.131549 -0.038341 -0.035578 -0.019068 -0.140806 0.124728 0.126929 -0.207545 -0.037934 -0.136321 -0.051419 0.170978 -0.291197 -0.077422 0.172477 0.022005 -0.190743 0.185564 0.082892 0.008967 -0.119474 0.217932 0.074077 -0.040913 -0.144393 0.162880 -0.185431 0.128932 0.185585 0.070610 -0.180536 -0.005150 0.066234 -0.137004 -0.099397 -0.018017 -0.013135 0.158015 0.000733 0.044578 -0.147834 0.005847 0.120741 -0.113167 0.027340 -0.151519 -0.054101 0.028388 -0.172684 -0.053873 0.141146 0.076230 0.084340 0.108894 -0.270571 0.085328 -0.211265 -0.125684 0.139514 0.010770 0.087333 -0.114611 -0.012075 -0.293729 0.046153 0.083342 0.039811 0.028782 0.098149 -0.151504 -0.012340 0.013914 0.060695 0.088704 0.146335 -0.108822 0.116735 0.158662 -0.102234 -0.213691 0.045369 -0.025089 -0.049546 0.012861 0.121078 0.026201 0.100226 -0.084682 0.061833 0.084497 0.081073 0.197643 0.063275 0.016613 0.078386 -0.126587 0.112338 0.116368 0.042659 -0.096305 0.014402 -0.120804 0.107487 -0.042051 -0.046579 0.153192 -0.068081 -0.023012 0.048047 -0.057300 -0.173694 -0.044654
9 0.177773 -0.087248 0.024363 0.063836 -0.081196 -0.017174 -0.139925 -0.016472 0.152014 0.068905 0.228552 0.031811 -0.073595 -0.143916 0.029857 0.063820 0.096077 -0.063105 0.002867 0.051686 -0.087063 0.069071 0.079129 -0.130966 -0.058122 -0.120426 0.017803 0.156461 -0.182623 0.031809 0.183266 0.058671 -0.178803 0.149998 0.110954 -0.008363 -0.197500 0.162252 -0.012076 -0.094888 -0.145850 0.146126 -0.173540 0.177290 0.114308 0.045930 -0.111545 -0.039008 -0.003675 -0.079368 -0.102607 -0.018337 -0.004108 0.187285 0.014504 -0.040248 -0.167256 0.048568 0.116186 -0.009411 -0.011603 -0.104605 -0.127504 -0.037945 -0.148853 -0.100912 0.040270 0.027255 0.117510 0.042945 -0.212578 0.012055 -0.090564 -0.031886 0.090774 -0.008736 0.174442 -0.081929 0.035464 -0.244980 -0.055610 0.148435 0.026308 -0.043366 0.062118 -0.131612 -0.070473 0.018173 0.095830 0.065530 0.141719 -0.017905 0.000809 0.093363 -0.047347 -0.129706 0.047520 -0.033470 -0.049702 0.043089 -0.001679 -0.136897 -0.006312 -0.034484 -0.044645 0.126218 0.004853 0.212643 0.001142 0.035698 0.047191 -0.080324 0.028476 0.175018 0.048294 -0.064842 0.097657 -0.119849 0.123924 0.031177 -0.102863 0.124491 0.021008 -0.087931 -0.010269 -0.042577 -0.154562 0.061792
29 0.186209 -0.091077 0.024972 0.062124 -0.079307 0.000248 -0.151600 -0.022734 0.162826 0.072447 0.237372 0.043470 -0.088507 -0.142061 0.030305 0.080744 0.099848 -0.072238 0.014975 0.053313 -0.093140 0.065291 0.080517 -0.128814 -0.056322 -0.128563 0.022154 0.156769 -0.189128 0.043588 0.188530 0.066134 -0.176897 0.138983 0.114706 -0.014561 -0.209982 0.154648 -0.024977 -0.098954 -0.144852 0.148578 -0.173153 0.173619 0.096749 0.046474 -0.096093 -0.043024 -0.003613 -0.063832 -0.099161 -0.007429 -0.007394 0.178144 0.012794 -0.051562 -0.165177 0.051850 0.116994 0.002648 -0.015647 -0.099772 -0.140919 -0.044207 -0.139251 -0.109278 0.032239 0.025803 0.130331 0.034312 -0.216561 -0.002246 -0.074097 -0.021142 0.087900 -0.003838 0.186507 -0.078144 0.049348 -0.238388 -0.068689 0.163162 0.015276 -0.055227 0.058143 -0.125727 -0.071303 0.013517 0.094879 0.060206 0.141553 -0.007843 -0.004519 0.091060 -0.036738 -0.114643 0.045381 -0.029843 -0.057556 0.043031 -0.019488 -0.152380 -0.018250 -0.028137 -0.056512 0.142520 -0.007254 0.213573 -0.003857 0.028419 0.042626 -0.075972 0.014399 0.186150 0.051323 -0.058929 0.107123 -0.111690 0.121961 0.038344 -0.110160 0.132966 0.037370 -0.097013 -0.014740 -0.042108 -0.153125 0.076121
11 0.198066 -0.099606 0.052792 0.082378 -0.052117 -0.102640 -0.116995 0.027090 0.149135 0.021367 0.288793 -0.011901 -0.095997 -0.166011 -0.015936 -0.063084 0.135083 -0.029329 -0.048566 -0.020304 -0.144239 0.128278 0.129083 -0.215815 -0.038252 -0.138364 -0.050700 0.166698 -0.300412 -0.090658 0.175011 0.017431 -0.190379 0.188790 0.085664 0.008678 -0.107091 0.228530 0.082712 -0.038000 -0.140297 0.160319 -0.191236 0.118312 0.194987 0.065392 -0.192521 -0.004653 0.071189 -0.151145 -0.099089 -0.021471 -0.019642 0.157891 -0.005766 0.053155 -0.142126 -0.001708 0.130791 -0.131848 0.023873 -0.157407 -0.044558 0.036899 -0.170719 -0.046315 0.146834 0.084196 0.078828 0.120645 -0.273770 0.098751 -0.228130 -0.135976 0.140907 0.006953 0.078649 -0.118475 -0.017955 -0.301143 0.066446 0.077577 0.036312 0.033106 0.109502 -0.157125 -0.007282 0.016987 0.054359 0.097829 0.146329 -0.114996 0.131257 0.164127 -0.116100 -0.227669 0.042081 -0.020240 -0.049299 0.007312 0.134002 0.042953 0.120656 -0.091284 0.072789 0.075374 0.097761 0.195547 0.072118 0.016093 0.078784 -0.132260 0.118130 0.102547 0.040711 -0.103747 -0.002969 -0.122063 0.098461 -0.053850 -0.040329 0.161481 -0.082449 -0.009097 0.055875 -0.057673 -0.173518 -0.055409
5 0.190319 -0.093445 0.047955 0.076849 -0.061144 -0.088325 -0.121436 0.020740 0.156343 0.031299 0.277001 -0.000728 -0.091724 -0.163484 -0.004452 -0.032120 0.129066 -0.044259 -0.035589 -0.012856 -0.128485 0.119965 0.118944 -0.195734 -0.042894 -0.134013 -0.038881 0.165819 -0.274520 -0.063682 0.178431 0.032449 -0.186416 0.180212 0.092341 0.004335 -0.121368 0.211331 0.060794 -0.050106 -0.140389 0.156195 -0.183070 0.127272 0.178824 0.065445 -0.172508 -0.015880 0.054603 -0.133022 -0.093924 -0.020979 -0.018281 0.157633 0.000472 0.034190 -0.146055 0.006118 0.121102 -0.107713 0.023009 -0.145541 -0.065013 0.014508 -0.158771 -0.053298 0.130648 0.073485 0.091303 0.099718 -0.257049 0.075488 -0.194037 -0.113067 0.131020 0.009242 0.092732 -0.107791 -0.004509 -0.285005 0.042308 0.088574 0.029740 0.016876 0.096131 -0.149247 -0.017090 0.010860 0.063208 0.083156 0.141955 -0.096465 0.103377 0.147633 -0.096089 -0.202540 0.046489 -0.026425 -0.049484 0.008746 0.100734 0.009618 0.086399 -0.082436 0.050981 0.084220 0.072018 0.195548 0.054510 0.014217 0.073435 -0.113784 0.096613 0.116487 0.040621 -0.092651 0.020902 -0.120322 0.103547 -0.036622 -0.053907 0.148399 -0.060741 -0.027322 0.038085 -0.055416 -0.162383 -0.029142
26 0.183466 -0.089437 0.022713 0.063829 -0.089000 0.007871 -0.156223 -0.023695 0.159760 0.075952 0.232161 0.046366 -0.086926 -0.140117 0.037451 0.094475 0.091312 -0.074227 0.020646 0.059877 -0.084806 0.051658 0.073561 -0.118062 -0.063122 -0.133679 0.024323 0.161789 -0.183687 0.053993 0.201012 0.073947 -0.175178 0.144215 0.125853 -0.018614 -0.223762 0.154893 -0.033573 -0.111849 -0.148813 0.157738 -0.178780 0.188764 0.096838 0.039815 -0.094292 -0.051896 -0.015163 -0.057495 -0.100679 -0.011120 -0.011428 0.188789 0.015208 -0.054272 -0.167908 0.058544 0.118869 0.006938 -0.010746 -0.096515 -0.151023 -0.051512 -0.147193 -0.113742 0.019516 0.024357 0.138176 0.028483 -0.216392 -0.014126 -0.064950 -0.003056 0.090589 -0.011080 0.196633 -0.083195 0.050042 -0.240442 -0.090380 0.177809 0.013908 -0.067959 0.054579 -0.135778 -0.079598 0.008835 0.103383 0.058520 0.142557 -0.003831 -0.019320 0.090259 -0.033082 -0.113236 0.052711 -0.038438 -0.053293 0.041520 -0.031991 -0.176550 -0.032818 -0.021767 -0.061620 0.157625 -0.011280 0.224202 -0.004511 0.034145 0.038026 -0.075667 0.012264 0.200775 0.054982 -0.061370 0.118507 -0.120091 0.130455 0.046336 -0.119148 0.136439 0.047552 -0.107530 -0.021031 -0.041571 -0.160609 0.093069
31 0.182007 -0.090989 0.020128 0.064526 -0.078454 -0.020418 -0.139868 -0.011614 0.151775 0.062505 0.229331 0.028650 -0.076922 -0.143561 0.021050 0.054791 0.098956 -0.068977 0.006745 0.048705 -0.094866 0.065003 0.083513 -0.132800 -0.050697 -0.121282 0.015109 0.154442 -0.188111 0.023565 0.184712 0.052092 -0.181591 0.147073 0.115568 -0.008661 -0.192068 0.164948 -0.005210 -0.095587 -0.141993 0.143400 -0.176732 0.174481 0.119934 0.049686 -0.116295 -0.035453 0.003981 -0.082003 -0.098764 -0.014504 -0.008571 0.181668 0.013891 -0.035462 -0.165304 0.042140 0.114488 -0.019046 -0.009100 -0.106665 -0.131964 -0.036741 -0.148208 -0.098175 0.045823 0.033439 0.120825 0.046672 -0.221378 0.012820 -0.094576 -0.036160 0.093872 -0.009231 0.173583 -0.081930 0.038257 -0.248304 -0.050465 0.153244 0.021750 -0.044166 0.063937 -0.134414 -0.071070 0.016600 0.090440 0.061723 0.139787 -0.023803 0.013466 0.096311 -0.044283 -0.130741 0.046715 -0.029100 -0.054478 0.038425 0.002510 -0.126782 -0.001364 -0.036969 -0.042094 0.128179 0.009946 0.211200 0.008799 0.029914 0.048810 -0.077429 0.024579 0.168396 0.045228 -0.065006 0.090902 -0.118783 0.120150 0.024268 -0.104155 0.130234 0.013638 -0.087863 -0.011352 -0.042038 -0.154765 0.056968
20 0.181837 -0.089075 0.026627 0.061515 -0.073054 -0.013517 -0.147295 -0.012903 0.158691 0.063459 0.232497 0.029392 -0.079681 -0.147032 0.023325 0.057254 0.101699 -0.069736 0.009306 0.047294 -0.092618 0.070213 0.077024 -0.131801 -0.055905 -0.126468 0.017453 0.157386 -0.186165 0.030779 0.182948 0.060914 -0.176828 0.146300 0.112427 -0.010637 -0.197471 0.159831 -0.009026 -0.097007 -0.145928 0.146927 -0.175074 0.173538 0.117225 0.048087 -0.108584 -0.041667 -0.002917 -0.080084 -0.103630 -0.015655 -0.011962 0.185261 0.014133 -0.043202 -0.165772 0.048347 0.116585 -0.009669 -0.010241 -0.106316 -0.131226 -0.035566 -0.147453 -0.101820 0.042031 0.030596 0.122380 0.043170 -0.219206 0.006133 -0.088980 -0.029009 0.092024 -0.009876 0.172593 -0.087472 0.042829 -0.244438 -0.053516 0.157667 0.024731 -0.048354 0.066510 -0.134269 -0.067863 0.014381 0.096777 0.066558 0.143919 -0.022332 0.011016 0.094338 -0.044347 -0.129166 0.049956 -0.031163 -0.056073 0.043265 -0.004091 -0.139953 -0.001783 -0.032823 -0.044148 0.135300 0.007393 0.221462 0.003567 0.027366 0.047326 -0.083989 0.022382 0.175810 0.049837 -0.069635 0.096951 -0.122282 0.126734 0.026063 -0.107288 0.130873 0.017464 -0.095552 -0.012709 -0.044051 -0.159711 0.067503
25 0.200738 -0.101001 0.028630 0.071725 -0.084327 -0.009493 -0.168589 -0.014905 0.167823 0.072210 0.249276 0.039575 -0.099766 -0.151512 0.029778 0.080306 0.098916 -0.078940 0.009633 0.057539 -0.098508 0.068297 0.085848 -0.133849 -0.056488 -0.137180 0.018562 0.171369 -0.206590 0.032923 0.208470 0.068311 -0.185194 0.149769 0.127350 -0.016133 -0.222597 0.170626 -0.023412 -0.106050 -0.152841 0.165923 -0.185319 0.183513 0.109343 0.045592 -0.109564 -0.053333 -0.008857 -0.067028 -0.112171 -0.009149 -0.012361 0.189124 0.011797 -0.051527 -0.176650 0.053929 0.130157 -0.007908 -0.009094 -0.103095 -0.140594 -0.048568 -0.146211 -0.115266 0.038426 0.028413 0.137541 0.045434 -0.229531 -0.003204 -0.082868 -0.017735 0.098232 -0.006546 0.190818 -0.089914 0.051423 -0.249207 -0.064784 0.172557 0.017822 -0.062873 0.067402 -0.141099 -0.068788 0.009338 0.108428 0.062996 0.145611 -0.012775 0.003394 0.095217 -0.040462 -0.131649 0.051914 -0.036122 -0.055687 0.039006 -0.012715 -0.159155 -0.014414 -0.032354 -0.050457 0.151820 0.001857 0.236007 0.002376 0.027842 0.046185 -0.083759 0.020997 0.199286 0.049707 -0.068333 0.106631 -0.120037 0.130939 0.031388 -0.110203 0.145739 0.035102 -0.106937 -0.019254 -0.046114 -0.164412 0.079344
13 0.192697 -0.094433 0.034601 0.069738 -0.069650 -0.050170 -0.140335 0.004197 0.159005 0.042503 0.263980 0.013428 -0.090361 -0.159211 0.007237 0.010278 0.114661 -0.060564 -0.016315 0.019977 -0.113618 0.097130 0.103269 -0.169816 -0.048247 -0.130937 -0.007313 0.164105 -0.235186 -0.020680 0.185018 0.046779 -0.195636 0.173399 0.108102 -0.013199 -0.165647 0.194578 0.018463 -0.078834 -0.148390 0.160292 -0.193386 0.162974 0.151447 0.056921 -0.152309 -0.032532 0.025950 -0.110640 -0.107015 -0.021194 -0.016579 0.182163 0.005819 -0.009429 -0.167028 0.022762 0.124141 -0.066388 0.004651 -0.133290 -0.105846 -0.010558 -0.156039 -0.082166 0.086516 0.050138 0.108713 0.076845 -0.241919 0.046676 -0.138293 -0.081432 0.119269 0.000616 0.146531 -0.100391 0.016452 -0.275750 -0.000796 0.125210 0.024885 -0.016823 0.087897 -0.145909 -0.049297 0.013011 0.089424 0.077110 0.140496 -0.052670 0.053512 0.119465 -0.078745 -0.172184 0.042692 -0.024767 -0.057373 0.026066 0.050482 -0.073491 0.047046 -0.062175 0.004542 0.109552 0.037962 0.210186 0.030111 0.030713 0.058963 -0.099292 0.062053 0.148129 0.044206 -0.080344 0.058289 -0.128658 0.112777 -0.004297 -0.086713 0.152031 -0.024726 -0.066618 0.013578 -0.048444 -0.163558 0.026756
15 0.179360 -0.087301 0.018324 0.056632 -0.088424 0.009011 -0.152487 -0.031374 0.164696 0.082063 0.225372 0.052050 -0.079789 -0.138690 0.039056 0.095716 0.095645 -0.076721 0.019407 0.065856 -0.085937 0.053026 0.067822 -0.114925 -0.063836 -0.128564 0.032624 0.151998 -0.167742 0.065407 0.189544 0.070646 -0.186196 0.142056 0.127157 -0.011984 -0.235460 0.152071 -0.035644 -0.108953 -0.153108 0.150243 -0.182803 0.198738 0.092455 0.045988 -0.092846 -0.044124 -0.015652 -0.057975 -0.106645 -0.012865 -0.005497 0.201738 0.017948 -0.056835 -0.177501 0.064876 0.124828 0.021887 -0.018214 -0.097018 -0.161857 -0.052841 -0.151807 -0.124354 0.015013 0.016980 0.144381 0.029850 -0.215017 -0.006979 -0.062748 -0.000365 0.080798 -0.013198 0.206891 -0.082603 0.056558 -0.247328 -0.096999 0.183982 0.018835 -0.070639 0.046903 -0.128507 -0.091710 0.015346 0.107743 0.055464 0.152248 0.000739 -0.022610 0.086807 -0.028699 -0.111227 0.049823 -0.035693 -0.053031 0.046336 -0.036293 -0.181418 -0.037961 -0.019016 -0.075062 0.148892 -0.017771 0.228973 -0.011311 0.039985 0.042122 -0.067258 0.002632 0.201936 0.047765 -0.052736 0.123177 -0.119456 0.133209 0.050228 -0.121820 0.126183 0.046388 -0.112185 -0.023232 -0.038948 -0.164173 0.092871
10 0.178370 -0.083577 0.024003 0.057333 -0.077842 -0.012440 -0.137667 -0.019304 0.157856 0.067011 0.227774 0.034516 -0.073854 -0.146107 0.027058 0.065243 0.094685 -0.068717 0.006042 0.047833 -0.089763 0.061622 0.081603 -0.130873 -0.056452 -0.125512 0.014549 0.158955 -0.182757 0.029910 0.186034 0.055822 -0.177710 0.141990 0.114741 -0.007034 -0.197100 0.156518 -0.012023 -0.091195 -0.143484 0.139168 -0.165227 0.173001 0.111155 0.043156 -0.107290 -0.038677 -0.001793 -0.074723 -0.093946 -0.013905 -0.004343 0.184160 0.018218 -0.037557 -0.166650 0.044794 0.112136 -0.008651 -0.015478 -0.100077 -0.134623 -0.035887 -0.142737 -0.102062 0.035087 0.026586 0.121443 0.041968 -0.211800 0.006598 -0.082268 -0.030101 0.088396 -0.009637 0.175018 -0.078904 0.038397 -0.243693 -0.059765 0.151423 0.022031 -0.051509 0.060108 -0.124694 -0.067924 0.018067 0.094130 0.060832 0.139660 -0.012393 0.001679 0.091431 -0.038095 -0.127585 0.044519 -0.031401 -0.057462 0.036971 -0.010322 -0.136202 -0.011247 -0.028004 -0.047524 0.128126 0.003365 0.213528 0.000626 0.034496 0.046916 -0.078782 0.024545 0.177941 0.048441 -0.059868 0.097434 -0.117177 0.124873 0.027618 -0.101966 0.125797 0.019735 -0.091078 -0.011377 -0.038413 -0.152365 0.070471
23 0.180187 -0.088861 0.021142 0.064231 -0.079881 -0.003514 -0.148554 -0.025431 0.159959 0.075207 0.232455 0.041094 -0.083004 -0.146865 0.033486 0.080829 0.094933 -0.071582 0.011321 0.059241 -0.085893 0.061845 0.074257 -0.124223 -0.059708 -0.122162 0.024386 0.155286 -0.184151 0.043471 0.191509 0.065934 -0.178904 0.143311 0.117586 -0.009885 -0.209356 0.150766 -0.016581 -0.098867 -0.145607 0.149646 -0.172230 0.180645 0.105283 0.047878 -0.097550 -0.037532 -0.006684 -0.063563 -0.098031 -0.011064 -0.006738 0.185927 0.017446 -0.045865 -0.169751 0.055827 0.115487 0.005392 -0.011704 -0.100050 -0.144426 -0.047652 -0.151856 -0.106282 0.027968 0.025281 0.129550 0.035969 -0.214302 -0.000213 -0.077681 -0.015975 0.084973 -0.002871 0.188507 -0.081736 0.042699 -0.243774 -0.078708 0.160901 0.018433 -0.057607 0.057542 -0.126364 -0.077581 0.014281 0.092280 0.057943 0.138996 -0.008786 -0.011433 0.093984 -0.033285 -0.119618 0.046224 -0.031317 -0.055662 0.041949 -0.020676 -0.152831 -0.018031 -0.021965 -0.058755 0.140137 -0.006062 0.217440 -0.004819 0.034026 0.038578 -0.076062 0.017455 0.186641 0.047710 -0.058020 0.110887 -0.116629 0.126462 0.039780 -0.109253 0.123805 0.035173 -0.103499 -0.012751 -0.038370 -0.150428 0.079388
17 0.202211 -0.094068 0.055524 0.090274 -0.051728 -0.115430 -0.109408 0.029020 0.152697 0.015722 0.299749 -0.013227 -0.094397 -0.171168 -0.005996 -0.058532 0.141535 -0.029449 -0.043620 -0.030113 -0.150709 0.135193 0.136933 -0.220665 -0.038844 -0.136515 -0.065330 0.166365 -0.307238 -0.091484 0.174899 0.022480 -0.186234 0.197860 0.080544 0.016394 -0.103429 0.226922 0.087119 -0.031862 -0.147945 0.160630 -0.185187 0.122760 0.199193 0.071630 -0.189461 0.002482 0.078680 -0.152605 -0.097966 -0.021065 -0.018211 0.153770 -0.001408 0.057216 -0.141104 -0.002981 0.126651 -0.137147 0.035239 -0.157991 -0.043149 0.042576 -0.180334 -0.039141 0.159273 0.089230 0.076528 0.117526 -0.274629 0.100992 -0.239088 -0.138162 0.142477 0.015640 0.073060 -0.116219 -0.025684 -0.304571 0.065010 0.069487 0.038242 0.043274 0.102044 -0.154205 -0.008798 0.017976 0.050652 0.097145 0.148441 -0.127840 0.131668 0.172754 -0.115657 -0.223677 0.045155 -0.017752 -0.050935 0.006859 0.138325 0.061213 0.116890 -0.094686 0.077932 0.071097 0.100431 0.190977 0.074558 0.009484 0.080593 -0.132259 0.127531 0.101672 0.042201 -0.099133 -0.008195 -0.125473 0.103059 -0.059474 -0.037650 0.157591 -0.089332 -0.005615 0.063487 -0.060528 -0.172584 -0.069422
22 0.171986 -0.087227 0.027476 0.066829 -0.061130 -0.043892 -0.127731 0.002738 0.144488 0.043264 0.230005 0.013642 -0.083249 -0.141138 0.004790 0.010203 0.103292 -0.052237 -0.012961 0.022798 -0.097533 0.085252 0.094881 -0.150649 -0.046471 -0.118254 -0.002165 0.151319 -0.204612 -0.014029 0.165422 0.037314 -0.179044 0.152944 0.103964 -0.012369 -0.157545 0.176077 0.016679 -0.074522 -0.145243 0.145265 -0.178642 0.148411 0.146596 0.054536 -0.135322 -0.027780 0.026308 -0.102996 -0.092517 -0.014550 -0.014556 0.171236 0.010881 -0.010005 -0.156576 0.023625 0.121189 -0.058367 0.003202 -0.120018 -0.104740 -0.015070 -0.143936 -0.079240 0.073164 0.048883 0.100934 0.073282 -0.229214 0.040257 -0.124109 -0.072939 0.110557 -0.005582 0.132612 -0.086559 0.023215 -0.251212 -0.009297 0.123783 0.024277 -0.015177 0.073280 -0.130227 -0.048390 0.010171 0.085105 0.072837 0.130765 -0.044998 0.046306 0.112327 -0.064708 -0.157807 0.039281 -0.022308 -0.053512 0.027021 0.044477 -0.068130 0.043063 -0.052050 -0.002195 0.101122 0.030213 0.194611 0.019881 0.025258 0.060696 -0.086217 0.050255 0.142921 0.039776 -0.074993 0.053832 -0.122573 0.110707 0.000889 -0.083624 0.133772 -0.016077 -0.064601 0.011243 -0.041032 -0.151939 0.023686
16 0.173562 -0.083334 0.015286 0.058499 -0.086102 0.001569 -0.145286 -0.023289 0.155858 0.074656 0.221762 0.040113 -0.074446 -0.142080 0.036033 0.086525 0.092374 -0.071083 0.019067 0.058520 -0.083453 0.052605 0.074745 -0.119393 -0.062044 -0.119607 0.024244 0.150977 -0.173323 0.054593 0.185779 0.062281 -0.180319 0.140656 0.120933 -0.015263 -0.220869 0.146932 -0.023679 -0.100912 -0.147650 0.144198 -0.174134 0.186143 0.097266 0.042869 -0.093767 -0.038140 -0.006651 -0.057528 -0.098580 -0.008862 -0.007869 0.187336 0.016567 -0.055722 -0.167698 0.053560 0.116503 0.008667 -0.012932 -0.097027 -0.145157 -0.052713 -0.148713 -0.110515 0.025039 0.021598 0.133580 0.025441 -0.206209 -0.003981 -0.071645 -0.011748 0.087859 -0.011039 0.190777 -0.075579 0.043501 -0.238670 -0.086085 0.169485 0.018254 -0.060722 0.051676 -0.123122 -0.083908 0.013723 0.096036 0.059956 0.141705 -0.002963 -0.018060 0.087965 -0.036030 -0.108738 0.047175 -0.033996 -0.054888 0.046757 -0.027777 -0.164668 -0.026810 -0.021861 -0.063690 0.143794 -0.013593 0.213112 -0.008608 0.036829 0.037808 -0.069489 0.007334 0.186339 0.044613 -0.057848 0.111172 -0.117203 0.130767 0.045103 -0.114912 0.126697 0.039399 -0.104586 -0.021792 -0.039793 -0.154256 0.088392
19 0.178648 -0.085675 0.019518 0.057910 -0.081892 -0.007988 -0.141053 -0.017843 0.153093 0.071134 0.228087 0.040832 -0.074268 -0.143569 0.032807 0.073102 0.093922 -0.072876 0.009185 0.057037 -0.088692 0.056224 0.077386 -0.123051 -0.059845 -0.123001 0.019687 0.154362 -0.179036 0.046312 0.188637 0.062402 -0.177239 0.150707 0.117083 -0.012792 -0.214422 0.156752 -0.021405 -0.101533 -0.143635 0.147848 -0.178368 0.182842 0.107263 0.044150 -0.102597 -0.037926 -0.005504 -0.071791 -0.103544 -0.013634 -0.008425 0.190014 0.017405 -0.046569 -0.170957 0.052615 0.120095 0.001549 -0.011460 -0.099957 -0.142380 -0.041443 -0.156080 -0.106005 0.034222 0.022979 0.130105 0.031728 -0.212131 0.003754 -0.082794 -0.020747 0.086478 -0.009805 0.189759 -0.083663 0.042405 -0.250772 -0.076264 0.162280 0.025167 -0.053659 0.052715 -0.129645 -0.079895 0.012803 0.097309 0.056962 0.147980 -0.015962 -0.001665 0.095101 -0.039619 -0.122200 0.048511 -0.031169 -0.054421 0.043127 -0.012693 -0.147632 -0.023381 -0.023849 -0.057927 0.138346 -0.006324 0.219510 0.000103 0.030392 0.044888 -0.076312 0.014572 0.182548 0.046263 -0.060783 0.109703 -0.117746 0.123678 0.035209 -0.113143 0.125226 0.027045 -0.100129 -0.016634 -0.044895 -0.158431 0.072091
21 0.182006 -0.087271 0.023737 0.060153 -0.073211 -0.022176 -0.132015 -0.013687 0.153098 0.066738 0.237829 0.033192 -0.078201 -0.146114 0.026596 0.053566 0.098382 -0.060241 0.002116 0.045276 -0.092041 0.067849 0.082885 -0.130506 -0.054909 -0.120732 0.008618 0.153080 -0.199685 0.023096 0.181400 0.056171 -0.172501 0.149663 0.105230 -0.002400 -0.192097 0.163771 -0.002423 -0.087933 -0.141417 0.145983 -0.169846 0.167361 0.111861 0.045700 -0.109935 -0.030921 0.004914 -0.078106 -0.095778 -0.007754 -0.007611 0.173260 0.012180 -0.031491 -0.156584 0.038054 0.112270 -0.014798 -0.004858 -0.101912 -0.119951 -0.033661 -0.153788 -0.096327 0.051689 0.030322 0.121718 0.043458 -0.220194 0.011333 -0.102921 -0.032065 0.097337 -0.002736 0.166345 -0.086569 0.031118 -0.249346 -0.051631 0.146594 0.024955 -0.043663 0.064742 -0.124013 -0.060047 0.017584 0.087934 0.065110 0.142794 -0.024046 0.016456 0.105552 -0.048714 -0.130270 0.045027 -0.028298 -0.051421 0.036993 0.003758 -0.112727 -0.002567 -0.034907 -0.033708 0.129689 0.012418 0.208193 0.005932 0.024760 0.043241 -0.080171 0.034362 0.169627 0.044687 -0.064199 0.083437 -0.109838 0.119912 0.025882 -0.096872 0.125736 0.014689 -0.084578 -0.002253 -0.045916 -0.156921 0.049625
18 0.173765 -0.088316 0.031091 0.066885 -0.062033 -0.052847 -0.123257 0.005466 0.138722 0.037977 0.238558 0.006857 -0.081087 -0.145539 0.001981 -0.003356 0.111053 -0.049685 -0.018562 0.011604 -0.105813 0.089695 0.095500 -0.156268 -0.042902 -0.123197 -0.014332 0.150214 -0.214764 -0.028199 0.161838 0.031668 -0.179634 0.159937 0.098248 -0.010553 -0.146247 0.176477 0.021667 -0.067080 -0.136894 0.141018 -0.169547 0.144063 0.146661 0.055749 -0.144141 -0.025906 0.025647 -0.108251 -0.092943 -0.018660 -0.011105 0.165764 0.003880 -0.002139 -0.153518 0.018987 0.116633 -0.067799 0.001534 -0.121663 -0.092389 -0.008204 -0.140439 -0.067659 0.088917 0.054937 0.097163 0.077380 -0.224496 0.051202 -0.136878 -0.085854 0.106845 -0.004018 0.126070 -0.094915 0.015697 -0.256862 0.009775 0.113813 0.029730 -0.006951 0.081874 -0.135729 -0.040979 0.010998 0.077056 0.076061 0.133136 -0.057700 0.056210 0.118562 -0.074833 -0.166805 0.042914 -0.025079 -0.056475 0.024089 0.057640 -0.052842 0.050477 -0.064376 0.006466 0.092261 0.042566 0.189257 0.032423 0.023669 0.059599 -0.097422 0.063138 0.130520 0.041392 -0.081879 0.041612 -0.115799 0.103893 -0.015441 -0.077677 0.134946 -0.027379 -0.052045 0.011932 -0.043265 -0.148477 0.015832
27 0.176828 -0.086812 0.016111 0.057185 -0.086324 0.009600 -0.150877 -0.025433 0.157338 0.081912 0.224410 0.046899 -0.077641 -0.135178 0.038595 0.091480 0.086992 -0.072143 0.023338 0.063468 -0.082337 0.046596 0.073094 -0.111938 -0.063335 -0.124065 0.024873 0.153405 -0.166885 0.061775 0.194862 0.069997 -0.179003 0.141251 0.124246 -0.013272 -0.227368 0.144494 -0.034859 -0.103851 -0.147433 0.149724 -0.171339 0.191833 0.089168 0.044254 -0.090834 -0.044269 -0.017224 -0.054819 -0.096376 -0.008180 -0.004260 0.185902 0.014899 -0.056930 -0.171149 0.063667 0.114855 0.023421 -0.019475 -0.090945 -0.153491 -0.049371 -0.152140 -0.119690 0.017606 0.016941 0.138739 0.025143 -0.207908 -0.013973 -0.063305 0.002289 0.083178 -0.012339 0.200593 -0.078128 0.048039 -0.240362 -0.097230 0.174673 0.014857 -0.066141 0.046287 -0.127661 -0.087019 0.014852 0.096144 0.054389 0.145317 0.000558 -0.024306 0.086823 -0.027878 -0.109652 0.049046 -0.031796 -0.054521 0.043742 -0.039051 -0.174975 -0.042722 -0.014697 -0.067008 0.153313 -0.017548 0.222451 -0.009910 0.033349 0.035527 -0.072610 0.004517 0.196266 0.053440 -0.052179 0.118634 -0.117955 0.132048 0.047263 -0.119535 0.120141 0.044587 -0.110706 -0.022447 -0.042650 -0.158986 0.089765
12 0.184746 -0.097439 0.038550 0.067999 -0.063399 -0.053803 -0.136325 0.005206 0.159090 0.040104 0.260744 0.011591 -0.085478 -0.154872 0.001777 0.004960 0.115040 -0.057304 -0.022767 0.010983 -0.113882 0.099321 0.106004 -0.173100 -0.048094 -0.133840 -0.017830 0.161812 -0.236438 -0.028107 0.176084 0.039985 -0.189001 0.169448 0.104444 -0.005125 -0.155157 0.193439 0.028647 -0.075409 -0.142944 0.156170 -0.186088 0.147381 0.156986 0.057138 -0.150103 -0.032534 0.032618 -0.117821 -0.103376 -0.019941 -0.013241 0.170211 0.007807 0.004528 -0.156997 0.021131 0.126642 -0.074119 0.002194 -0.130061 -0.091817 -0.006882 -0.149065 -0.076604 0.096519 0.055136 0.103124 0.085134 -0.242029 0.054521 -0.150274 -0.086698 0.120430 0.001494 0.131735 -0.099201 0.014178 -0.269557 0.009660 0.115268 0.027785 -0.008504 0.087206 -0.144770 -0.038046 0.014492 0.077793 0.077328 0.138088 -0.064155 0.066607 0.127856 -0.076474 -0.179401 0.044031 -0.022427 -0.058235 0.026590 0.065285 -0.052642 0.057851 -0.064901 0.013518 0.103487 0.047514 0.201220 0.031489 0.027362 0.059152 -0.103792 0.068314 0.140581 0.046461 -0.085974 0.048728 -0.127028 0.107362 -0.009726 -0.077502 0.148853 -0.026709 -0.054056 0.018555 -0.051687 -0.155440 0.007078
